{
    "layer1_weights": [
        -2.60758113861084,
        0.3171290457248688,
        -0.29617607593536377,
        -3.1307528018951416,
        -0.027145368978381157,
        0.1783972680568695,
        0.20095889270305634,
        -0.6307299733161926,
        -0.47295212745666504,
        -1.8126709461212158,
        0.00883403792977333,
        0.7138940095901489,
        0.8679337501525879,
        -0.20120024681091309,
        2.8030312061309814,
        0.9177248477935791
    ],
    "layer1_bias": [
        0.014713160693645477,
        -0.45277613401412964,
        0.669441819190979,
        -0.09674462676048279,
        -1.1467316150665283,
        -0.6188938617706299,
        -0.5977891087532043,
        -0.12284492701292038,
        -0.4273586571216583,
        0.3859955966472626,
        -0.5128133296966553,
        -0.588142454624176,
        0.2818329334259033,
        0.9361100196838379,
        1.3143069744110107,
        -0.599728524684906
    ],
    "layer2_weights": [
        -0.8140674233436584,
        -0.385614812374115,
        0.3919954299926758,
        -0.519758403301239,
        -0.27274659276008606,
        -0.23244774341583252,
        -0.15169745683670044,
        0.4899407625198364,
        0.16511642932891846,
        -0.3880506157875061,
        -0.14191469550132751,
        -0.05683329701423645,
        -0.31735625863075256,
        0.3913978934288025,
        -0.9954766631126404,
        0.11013106256723404
    ],
    "layer2_bias": [
        0.02773102931678295
    ]
}
